-0.12054
0.03265
0.49878
-0.90723
0.05017
-0.33569
0.16431
-0.01836
0.04059
-0.21399
-0.78809
-0.05927
-0.43066
-0.39014
-0.20056
0.21643
0.06982
0.27734
0.68604
1.25684
-0.34204
1.02832
0.72070
0.02895
0.07330
0.24768
0.86816
-0.21472
-1.58496
0.21802
1.08105
-0.09418
0.09875
0.97021
1.64258
-1.54297
-1.51465
2.19531
0.55859
0.02882
-0.00212
1.34082
-0.42065
-0.52148
0.94092
-0.54883
-0.37549
-0.00217
-0.04657
0.39014
0.37524
-0.68750
1.74609
0.52002
-0.42920
0.16260
0.11334
0.01947
-0.78613
0.07635
1.47461
-0.31812
0.61084
0.64404
-0.05212
-0.01869
-0.34717
-0.29761
-0.54297
-0.89014
0.32373
0.42920
0.00356
0.29224
0.16016
-0.77490
0.72803
0.14697
-0.02835
0.69238
-0.00845
-0.39282
-0.63818
-0.16321
0.62402
1.68945
1.18750
0.02281
-0.08545
-0.06403
0.90381
0.37109
0.45264
2.31250
1.21875
0.12097
-0.07080
0.09937
0.14331
1.35156
1.37207
0.95068
0.14722
0.12299
-0.08051
1.29102
0.29443
0.57324
0.89990
-0.45557
0.35278
0.03052
-0.08795
0.02861
-0.03357
0.09393
-1.72070
-1.52246
-1.22168
0.11945
-0.07257
0.09399
-0.10193
-0.21558
-0.34204
-0.91406
-0.96436
-0.01810
0.10162
-0.10883
0.06677
-0.15613
0.00037
0.01817
-0.06024
-0.11981
0.08490
-0.10382
-0.07648
0.05740
-0.03418
0.02884
-0.04648
-0.04752
-0.10303
0.06323
-0.06021
0.02281
-0.00428
-0.08258
-0.10773
-0.02141
0.03983
0.07373
-0.03644
0.01462
0.02579
-0.09937
0.01394
-0.10431
0.02626
-0.05341
-0.05597
-0.02051
-0.07623
0.00967
-0.10248
0.03677
-0.04810
-0.08362
0.03479
0.01190
-0.01086
-0.09308
-0.10706
0.04126
-0.04816
-0.06775
-0.06213
-0.11255
0.00990
0.08014
0.00050
0.09308
0.05914
0.07233
0.00446
0.03156
-0.15576
0.08868
-0.06812
-0.07074
-0.09882
0.05991
-0.93652
-1.34863
-1.51660
0.12164
-1.92480
0.20435
-0.04507
-0.76172
-1.56836
-0.50488
-1.06934
0.06110
-0.59814
-0.02493
0.06046
-0.46753
1.27051
1.28320
0.29932
0.23401
-0.20569
-0.06305
-0.11707
0.93945
1.19141
1.84668
-0.47729
0.15820
-0.13904
-0.10266
0.06952
-0.80664
0.09460
0.84375
0.45166
0.60742
-0.01802
-0.06110
-0.01163
-1.06250
2.20117
1.22070
1.27734
-0.10931
-1.37207
-0.01068
-0.12115
-0.64258
0.57666
-0.32471
-0.72705
0.73047
-0.18408
-0.00564
-0.09857
-0.02315
-1.20312
0.23364
1.80273
-0.02065
0.38208
0.72461
-0.08691
0.00934
-0.17786
0.42603
-0.06021
-0.79639
0.31909
-0.14136
-0.09418
-0.58447
0.41138
0.45288
-0.31079
0.55713
1.26172
-0.24939
0.04626
-0.58838
0.74023
-0.36914
0.11475
2.12305
0.17566
-0.07776
-0.08557
-0.36450
0.80420
0.40845
-0.01813
0.17871
-0.84912
-0.05942
0.05502
-0.80176
-0.29785
-0.61816
-0.82910
-0.05298
-0.17407
0.05267
-0.06238
-1.24512
0.07001
-2.95312
-1.51270
1.02637
1.21680
-0.11115
-0.04248
-0.76562
1.37598
-1.32422
0.53711
-0.38257
0.74072
-0.15613
0.00337
-0.09320
-1.24219
0.22742
2.73633
-0.27246
-0.14111
-0.89209
0.06061
0.00917
0.58594
1.52637
0.61475
0.13440
-0.40820
0.30078
0.01367
-0.49585
-0.01694
-0.10675
0.10834
-0.49194
0.84277
0.00178
-0.01883
0.14490
-1.03711
-0.33472
2.55664
1.38672
0.64062
0.02649
-0.02759
0.56641
-0.72363
0.15271
1.53711
0.36035
-0.23059
-0.05716
0.03735
-0.18213
-0.03244
-0.51465
0.40234
0.93945
-1.26855
0.09717
0.10742
0.19165
-2.35938
-0.43774
0.48291
-0.83447
-1.44531
0.10760
-0.11151
0.42725
-0.03494
-0.29150
0.59570
-0.19885
0.49390
0.29688
-0.10413
0.09094
-0.70898
-0.84521
0.32568
0.83936
0.89404
1.61230
0.08752
0.11896
0.89648
-0.26636
1.25684
-0.07684
-0.85986
0.04742
-0.12122
-0.00101
1.56836
0.55176
-0.16467
0.13623
0.24695
0.07916
0.09338
0.62598
-0.85693
-1.63867
-0.57324
-0.32593
0.43359
-0.06244
0.05191
-1.01660
-1.96191
-0.85400
0.33350
0.01550
-0.09625
-0.08386
0.09741
0.05304
-1.43555
1.13379
0.43555
-0.53906
-0.65967
-0.06750
-0.07697
-0.46021
1.41309
0.06177
0.01950
0.00717
-0.18750
-0.08087
-0.11023
0.51367
1.46191
0.22815
0.51855
1.09277
-0.38110
-0.23486
-0.07098
0.01912
0.01321
0.18665
1.01758
0.49927
0.88672
-0.02109
0.11737
0.00629
0.64209
0.69092
0.66943
0.37939
0.64844
-0.49390
0.06042
0.16565
-0.47363
1.16992
-0.28149
-0.63281
-0.87061
-0.30835
-0.04834
-0.77295
-0.02719
0.71143
-2.60742
-3.71289
-1.94629
0.10016
0.02151
0.34937
1.41016
-0.08990
0.86621
-1.48926
0.38452
-0.12451
0.01675
0.64404
0.94678
-0.88623
-0.02881
0.75635
1.01270
-0.09119
-0.01331
0.62402
0.83594
1.29883
-0.06403
-0.13306
1.77051
0.06018
-0.04919
-0.03168
-0.59375
0.16858
1.48047
-0.22485
-0.39575
-0.05655
0.02974
-0.00486
0.79639
-0.99121
-0.50146
0.30786
0.49292
0.05411
0.11554
-0.11859
0.83008
0.00739
-1.72852
-0.16992
0.32788
-0.23145
0.01288
0.68896
0.53125
0.04947
-1.04102
0.12372
0.22339
0.05170
0.11176
0.21777
1.98730
-0.19482
0.14111
1.08008
-0.13562
0.05524
-0.07062
-0.19299
0.97119
1.40527
1.24609
0.89746
0.63574
-0.04828
0.04587
-0.69141
-1.08887
0.42139
-0.71729
-1.54883
-0.37646
-0.09204
-0.01516
-0.16968
-0.77393
-0.57080
-0.42456
-0.82080
0.07574
-0.02309
0.07452
-0.04129
0.05624
-0.49097
0.11206
-0.11023
-0.52051
-0.10107
0.09454
0.06934
1.17480
0.70117
0.64355
0.02423
-0.27563
-0.66943
0.05078
0.00103
0.64551
0.38525
0.41040
1.09375
1.58008
0.10071
-0.04486
0.58594
0.83008
-0.53223
0.79199
-0.09595
0.36841
-0.21216
-0.10010
-0.23059
-0.21045
0.27881
-0.64795
-0.52490
-0.38550
0.08948
0.10175
-0.58398
-0.00234
1.19043
0.67969
0.08032
-0.50098
-0.09625
-0.07233
-0.06354
0.30322
1.09570
0.24841
0.27173
0.21106
0.04047
-0.10425
-0.37402
-1.21680
-0.57764
1.37012
0.61865
-0.46265
-0.09821
0.01311
-0.38745
-1.17773
-0.99414
-1.15430
0.23181
-0.69434
0.15210
-0.10095
0.07477
0.96387
1.28125
-1.16309
-0.82568
-1.00488
0.29956
